digraph Tree {
node [shape=box] ;
0 [label="TCURSSVC <= 2.812\nmse = 1.97\nsamples = 762\nvalue = 2.569"] ;
1 [label="TLOCREV <= 1.965\nmse = 2.237\nsamples = 375\nvalue = 3.13"] ;
0 -> 1 [labeldistance=2.5, labelangle=45, headlabel="True"] ;
2 [label="TCURONON <= 0.35\nmse = 0.883\nsamples = 95\nvalue = 2.155"] ;
1 -> 2 ;
3 [label="TCURINST <= 2.987\nmse = 0.977\nsamples = 16\nvalue = 3.011"] ;
2 -> 3 ;
4 [label="mse = 0.508\nsamples = 5\nvalue = 3.785"] ;
3 -> 4 ;
5 [label="TCURONON <= 0.338\nmse = 0.794\nsamples = 11\nvalue = 2.659"] ;
3 -> 5 ;
6 [label="mse = 0.645\nsamples = 5\nvalue = 2.052"] ;
5 -> 6 ;
7 [label="mse = 0.354\nsamples = 6\nvalue = 3.165"] ;
5 -> 7 ;
8 [label="TSTREV <= 4.044\nmse = 0.686\nsamples = 79\nvalue = 1.982"] ;
2 -> 8 ;
9 [label="TSTREV <= 3.766\nmse = 0.725\nsamples = 11\nvalue = 2.696"] ;
8 -> 9 ;
10 [label="mse = 0.555\nsamples = 6\nvalue = 2.187"] ;
9 -> 10 ;
11 [label="mse = 0.246\nsamples = 5\nvalue = 3.307"] ;
9 -> 11 ;
12 [label="TLOCREV <= 1.332\nmse = 0.584\nsamples = 68\nvalue = 1.867"] ;
8 -> 12 ;
13 [label="TCURSSVC <= 2.065\nmse = 0.548\nsamples = 35\nvalue = 2.089"] ;
12 -> 13 ;
14 [label="mse = 0.51\nsamples = 9\nvalue = 1.535"] ;
13 -> 14 ;
15 [label="TSTREV <= 5.147\nmse = 0.419\nsamples = 26\nvalue = 2.281"] ;
13 -> 15 ;
16 [label="TCAPOUT <= 0.314\nmse = 0.406\nsamples = 16\nvalue = 2.53"] ;
15 -> 16 ;
17 [label="mse = 0.416\nsamples = 5\nvalue = 3.001"] ;
16 -> 17 ;
18 [label="TCAPOUT <= 0.432\nmse = 0.255\nsamples = 11\nvalue = 2.316"] ;
16 -> 18 ;
19 [label="mse = 0.154\nsamples = 6\nvalue = 2.068"] ;
18 -> 19 ;
20 [label="mse = 0.213\nsamples = 5\nvalue = 2.613"] ;
18 -> 20 ;
21 [label="TCAPOUT <= 1.088\nmse = 0.18\nsamples = 10\nvalue = 1.881"] ;
15 -> 21 ;
22 [label="mse = 0.08\nsamples = 5\nvalue = 1.692"] ;
21 -> 22 ;
23 [label="mse = 0.209\nsamples = 5\nvalue = 2.071"] ;
21 -> 23 ;
24 [label="TLOCREV <= 1.621\nmse = 0.514\nsamples = 33\nvalue = 1.631"] ;
12 -> 24 ;
25 [label="TCURINST <= 3.13\nmse = 0.37\nsamples = 22\nvalue = 1.375"] ;
24 -> 25 ;
26 [label="mse = 0.126\nsamples = 7\nvalue = 0.868"] ;
25 -> 26 ;
27 [label="TFEDREV <= 0.963\nmse = 0.308\nsamples = 15\nvalue = 1.612"] ;
25 -> 27 ;
28 [label="mse = 0.262\nsamples = 8\nvalue = 1.955"] ;
27 -> 28 ;
29 [label="mse = 0.072\nsamples = 7\nvalue = 1.219"] ;
27 -> 29 ;
30 [label="TCURONON <= 0.421\nmse = 0.408\nsamples = 11\nvalue = 2.143"] ;
24 -> 30 ;
31 [label="mse = 0.152\nsamples = 6\nvalue = 2.504"] ;
30 -> 31 ;
32 [label="mse = 0.371\nsamples = 5\nvalue = 1.711"] ;
30 -> 32 ;
33 [label="TCURSSVC <= 2.262\nmse = 2.265\nsamples = 280\nvalue = 3.461"] ;
1 -> 33 ;
34 [label="TCURINST <= 3.662\nmse = 2.657\nsamples = 95\nvalue = 4.039"] ;
33 -> 34 ;
35 [label="TCURSSVC <= 1.788\nmse = 1.727\nsamples = 81\nvalue = 3.832"] ;
34 -> 35 ;
36 [label="mse = 4.672\nsamples = 5\nvalue = 5.888"] ;
35 -> 36 ;
37 [label="TCURONON <= 0.421\nmse = 1.237\nsamples = 76\nvalue = 3.696"] ;
35 -> 37 ;
38 [label="TSTREV <= 3.875\nmse = 0.995\nsamples = 36\nvalue = 3.253"] ;
37 -> 38 ;
39 [label="TCAPOUT <= 1.089\nmse = 1.061\nsamples = 28\nvalue = 3.459"] ;
38 -> 39 ;
40 [label="TCURINST <= 3.066\nmse = 1.26\nsamples = 16\nvalue = 3.812"] ;
39 -> 40 ;
41 [label="mse = 0.697\nsamples = 8\nvalue = 3.422"] ;
40 -> 41 ;
42 [label="mse = 1.518\nsamples = 8\nvalue = 4.202"] ;
40 -> 42 ;
43 [label="TCURINST <= 3.097\nmse = 0.409\nsamples = 12\nvalue = 2.989"] ;
39 -> 43 ;
44 [label="mse = 0.105\nsamples = 5\nvalue = 2.399"] ;
43 -> 44 ;
45 [label="mse = 0.201\nsamples = 7\nvalue = 3.409"] ;
43 -> 45 ;
46 [label="mse = 0.091\nsamples = 8\nvalue = 2.531"] ;
38 -> 46 ;
47 [label="TCAPOUT <= 1.193\nmse = 1.119\nsamples = 40\nvalue = 4.095"] ;
37 -> 47 ;
48 [label="TCAPOUT <= 1.084\nmse = 0.863\nsamples = 27\nvalue = 4.275"] ;
47 -> 48 ;
49 [label="TCURONON <= 0.472\nmse = 0.701\nsamples = 21\nvalue = 4.103"] ;
48 -> 49 ;
50 [label="mse = 0.742\nsamples = 8\nvalue = 4.544"] ;
49 -> 50 ;
51 [label="TCURSSVC <= 2.072\nmse = 0.482\nsamples = 13\nvalue = 3.832"] ;
49 -> 51 ;
52 [label="mse = 0.307\nsamples = 5\nvalue = 4.397"] ;
51 -> 52 ;
53 [label="mse = 0.267\nsamples = 8\nvalue = 3.479"] ;
51 -> 53 ;
54 [label="mse = 0.968\nsamples = 6\nvalue = 4.877"] ;
48 -> 54 ;
55 [label="TFEDREV <= 0.607\nmse = 1.443\nsamples = 13\nvalue = 3.721"] ;
47 -> 55 ;
56 [label="mse = 1.292\nsamples = 7\nvalue = 3.077"] ;
55 -> 56 ;
57 [label="mse = 0.569\nsamples = 6\nvalue = 4.473"] ;
55 -> 57 ;
58 [label="TLOCREV <= 3.184\nmse = 6.348\nsamples = 14\nvalue = 5.239"] ;
34 -> 58 ;
59 [label="mse = 0.505\nsamples = 9\nvalue = 3.515"] ;
58 -> 59 ;
60 [label="mse = 1.891\nsamples = 5\nvalue = 8.341"] ;
58 -> 60 ;
61 [label="TCAPOUT <= 0.565\nmse = 1.804\nsamples = 185\nvalue = 3.164"] ;
33 -> 61 ;
62 [label="TLOCREV <= 2.419\nmse = 1.2\nsamples = 39\nvalue = 2.233"] ;
61 -> 62 ;
63 [label="mse = 0.693\nsamples = 7\nvalue = 3.394"] ;
62 -> 63 ;
64 [label="TFEDREV <= 1.11\nmse = 0.952\nsamples = 32\nvalue = 1.979"] ;
62 -> 64 ;
65 [label="TFEDREV <= 0.859\nmse = 0.276\nsamples = 23\nvalue = 1.718"] ;
64 -> 65 ;
66 [label="mse = 0.059\nsamples = 9\nvalue = 1.408"] ;
65 -> 66 ;
67 [label="TFEDREV <= 0.988\nmse = 0.313\nsamples = 14\nvalue = 1.918"] ;
65 -> 67 ;
68 [label="mse = 0.321\nsamples = 9\nvalue = 2.109"] ;
67 -> 68 ;
69 [label="mse = 0.116\nsamples = 5\nvalue = 1.575"] ;
67 -> 69 ;
70 [label="mse = 2.063\nsamples = 9\nvalue = 2.645"] ;
64 -> 70 ;
71 [label="TCURINST <= 4.845\nmse = 1.673\nsamples = 146\nvalue = 3.412"] ;
61 -> 71 ;
72 [label="TCURONON <= 1.097\nmse = 0.913\nsamples = 121\nvalue = 3.241"] ;
71 -> 72 ;
73 [label="TCURSSVC <= 2.543\nmse = 0.852\nsamples = 116\nvalue = 3.299"] ;
72 -> 73 ;
74 [label="TCURSSVC <= 2.349\nmse = 0.759\nsamples = 75\nvalue = 3.45"] ;
73 -> 74 ;
75 [label="TSTREV <= 3.388\nmse = 0.68\nsamples = 23\nvalue = 3.159"] ;
74 -> 75 ;
76 [label="mse = 0.337\nsamples = 6\nvalue = 2.578"] ;
75 -> 76 ;
77 [label="TLOCREV <= 2.875\nmse = 0.64\nsamples = 17\nvalue = 3.364"] ;
75 -> 77 ;
78 [label="mse = 0.818\nsamples = 7\nvalue = 2.95"] ;
77 -> 78 ;
79 [label="TCURSSVC <= 2.292\nmse = 0.311\nsamples = 10\nvalue = 3.653"] ;
77 -> 79 ;
80 [label="mse = 0.125\nsamples = 5\nvalue = 3.958"] ;
79 -> 80 ;
81 [label="mse = 0.311\nsamples = 5\nvalue = 3.348"] ;
79 -> 81 ;
82 [label="TFEDREV <= 0.908\nmse = 0.74\nsamples = 52\nvalue = 3.579"] ;
74 -> 82 ;
83 [label="TLOCREV <= 3.945\nmse = 0.644\nsamples = 41\nvalue = 3.427"] ;
82 -> 83 ;
84 [label="TCURSSVC <= 2.378\nmse = 0.349\nsamples = 21\nvalue = 3.102"] ;
83 -> 84 ;
85 [label="mse = 0.078\nsamples = 7\nvalue = 3.673"] ;
84 -> 85 ;
86 [label="TLOCREV <= 3.351\nmse = 0.24\nsamples = 14\nvalue = 2.817"] ;
84 -> 86 ;
87 [label="mse = 0.209\nsamples = 7\nvalue = 2.577"] ;
86 -> 87 ;
88 [label="mse = 0.157\nsamples = 7\nvalue = 3.057"] ;
86 -> 88 ;
89 [label="TCURSSVC <= 2.434\nmse = 0.727\nsamples = 20\nvalue = 3.769"] ;
83 -> 89 ;
90 [label="mse = 0.651\nsamples = 7\nvalue = 4.459"] ;
89 -> 90 ;
91 [label="TFEDREV <= 0.698\nmse = 0.373\nsamples = 13\nvalue = 3.397"] ;
89 -> 91 ;
92 [label="mse = 0.172\nsamples = 5\nvalue = 2.851"] ;
91 -> 92 ;
93 [label="mse = 0.195\nsamples = 8\nvalue = 3.739"] ;
91 -> 93 ;
94 [label="TCAPOUT <= 1.042\nmse = 0.691\nsamples = 11\nvalue = 4.144"] ;
82 -> 94 ;
95 [label="mse = 0.63\nsamples = 6\nvalue = 3.834"] ;
94 -> 95 ;
96 [label="mse = 0.512\nsamples = 5\nvalue = 4.516"] ;
94 -> 96 ;
97 [label="TLOCREV <= 4.499\nmse = 0.903\nsamples = 41\nvalue = 3.023"] ;
73 -> 97 ;
98 [label="TLOCREV <= 3.227\nmse = 0.93\nsamples = 30\nvalue = 2.843"] ;
97 -> 98 ;
99 [label="TSTREV <= 3.951\nmse = 1.137\nsamples = 13\nvalue = 3.261"] ;
98 -> 99 ;
100 [label="mse = 0.463\nsamples = 5\nvalue = 4.086"] ;
99 -> 100 ;
101 [label="mse = 0.867\nsamples = 8\nvalue = 2.745"] ;
99 -> 101 ;
102 [label="TCAPOUT <= 0.995\nmse = 0.536\nsamples = 17\nvalue = 2.524"] ;
98 -> 102 ;
103 [label="mse = 0.25\nsamples = 7\nvalue = 1.999"] ;
102 -> 103 ;
104 [label="TCAPOUT <= 1.421\nmse = 0.409\nsamples = 10\nvalue = 2.891"] ;
102 -> 104 ;
105 [label="mse = 0.589\nsamples = 5\nvalue = 3.209"] ;
104 -> 105 ;
106 [label="mse = 0.027\nsamples = 5\nvalue = 2.574"] ;
104 -> 106 ;
107 [label="TFEDREV <= 0.732\nmse = 0.502\nsamples = 11\nvalue = 3.512"] ;
97 -> 107 ;
108 [label="mse = 0.108\nsamples = 5\nvalue = 2.849"] ;
107 -> 108 ;
109 [label="mse = 0.159\nsamples = 6\nvalue = 4.064"] ;
107 -> 109 ;
110 [label="mse = 0.423\nsamples = 5\nvalue = 1.886"] ;
72 -> 110 ;
111 [label="TFEDREV <= 0.723\nmse = 4.517\nsamples = 25\nvalue = 4.242"] ;
71 -> 111 ;
112 [label="mse = 5.063\nsamples = 6\nvalue = 6.571"] ;
111 -> 112 ;
113 [label="TCURINST <= 5.061\nmse = 2.092\nsamples = 19\nvalue = 3.507"] ;
111 -> 113 ;
114 [label="mse = 3.243\nsamples = 5\nvalue = 4.673"] ;
113 -> 114 ;
115 [label="TFEDREV <= 1.077\nmse = 1.022\nsamples = 14\nvalue = 3.091"] ;
113 -> 115 ;
116 [label="mse = 0.349\nsamples = 8\nvalue = 3.641"] ;
115 -> 116 ;
117 [label="mse = 0.979\nsamples = 6\nvalue = 2.358"] ;
115 -> 117 ;
118 [label="TLOCREV <= 2.283\nmse = 1.109\nsamples = 387\nvalue = 2.025"] ;
0 -> 118 [labeldistance=2.5, labelangle=-45, headlabel="False"] ;
119 [label="TCURINST <= 4.324\nmse = 0.551\nsamples = 82\nvalue = 1.266"] ;
118 -> 119 ;
120 [label="TFEDREV <= 1.616\nmse = 0.944\nsamples = 17\nvalue = 2.062"] ;
119 -> 120 ;
121 [label="TFEDREV <= 1.224\nmse = 0.929\nsamples = 11\nvalue = 1.691"] ;
120 -> 121 ;
122 [label="mse = 0.686\nsamples = 5\nvalue = 2.509"] ;
121 -> 122 ;
123 [label="mse = 0.108\nsamples = 6\nvalue = 1.009"] ;
121 -> 123 ;
124 [label="mse = 0.257\nsamples = 6\nvalue = 2.742"] ;
120 -> 124 ;
125 [label="TCURINST <= 5.315\nmse = 0.239\nsamples = 65\nvalue = 1.057"] ;
119 -> 125 ;
126 [label="TFEDREV <= 2.323\nmse = 0.206\nsamples = 58\nvalue = 1.134"] ;
125 -> 126 ;
127 [label="TCURSSVC <= 3.001\nmse = 0.181\nsamples = 51\nvalue = 1.201"] ;
126 -> 127 ;
128 [label="mse = 0.056\nsamples = 5\nvalue = 1.684"] ;
127 -> 128 ;
129 [label="TCURONON <= 0.523\nmse = 0.166\nsamples = 46\nvalue = 1.148"] ;
127 -> 129 ;
130 [label="TCAPOUT <= 0.343\nmse = 0.217\nsamples = 14\nvalue = 0.893"] ;
129 -> 130 ;
131 [label="mse = 0.096\nsamples = 9\nvalue = 0.654"] ;
130 -> 131 ;
132 [label="mse = 0.146\nsamples = 5\nvalue = 1.322"] ;
130 -> 132 ;
133 [label="TFEDREV <= 1.603\nmse = 0.103\nsamples = 32\nvalue = 1.26"] ;
129 -> 133 ;
134 [label="TCURSSVC <= 3.343\nmse = 0.075\nsamples = 26\nvalue = 1.197"] ;
133 -> 134 ;
135 [label="TCURSSVC <= 3.169\nmse = 0.043\nsamples = 14\nvalue = 1.305"] ;
134 -> 135 ;
136 [label="mse = 0.043\nsamples = 6\nvalue = 1.195"] ;
135 -> 136 ;
137 [label="mse = 0.027\nsamples = 8\nvalue = 1.388"] ;
135 -> 137 ;
138 [label="TSTREV <= 5.547\nmse = 0.082\nsamples = 12\nvalue = 1.071"] ;
134 -> 138 ;
139 [label="mse = 0.089\nsamples = 5\nvalue = 1.257"] ;
138 -> 139 ;
140 [label="mse = 0.035\nsamples = 7\nvalue = 0.938"] ;
138 -> 140 ;
141 [label="mse = 0.131\nsamples = 6\nvalue = 1.535"] ;
133 -> 141 ;
142 [label="mse = 0.123\nsamples = 7\nvalue = 0.647"] ;
126 -> 142 ;
143 [label="mse = 0.053\nsamples = 7\nvalue = 0.42"] ;
125 -> 143 ;
144 [label="TCAPOUT <= 0.746\nmse = 1.063\nsamples = 305\nvalue = 2.229"] ;
118 -> 144 ;
145 [label="TCAPOUT <= 0.317\nmse = 0.787\nsamples = 133\nvalue = 1.852"] ;
144 -> 145 ;
146 [label="TLOCREV <= 3.203\nmse = 0.519\nsamples = 34\nvalue = 1.46"] ;
145 -> 146 ;
147 [label="TCURSSVC <= 3.554\nmse = 0.226\nsamples = 17\nvalue = 0.976"] ;
146 -> 147 ;
148 [label="TFEDREV <= 1.433\nmse = 0.17\nsamples = 11\nvalue = 1.137"] ;
147 -> 148 ;
149 [label="mse = 0.082\nsamples = 6\nvalue = 0.908"] ;
148 -> 149 ;
150 [label="mse = 0.135\nsamples = 5\nvalue = 1.413"] ;
148 -> 150 ;
151 [label="mse = 0.194\nsamples = 6\nvalue = 0.681"] ;
147 -> 151 ;
152 [label="TCURINST <= 5.215\nmse = 0.344\nsamples = 17\nvalue = 1.945"] ;
146 -> 152 ;
153 [label="TCURSSVC <= 3.059\nmse = 0.28\nsamples = 12\nvalue = 2.151"] ;
152 -> 153 ;
154 [label="mse = 0.078\nsamples = 5\nvalue = 1.872"] ;
153 -> 154 ;
155 [label="mse = 0.33\nsamples = 7\nvalue = 2.35"] ;
153 -> 155 ;
156 [label="mse = 0.149\nsamples = 5\nvalue = 1.449"] ;
152 -> 156 ;
157 [label="TFEDREV <= 1.001\nmse = 0.808\nsamples = 99\nvalue = 1.987"] ;
145 -> 157 ;
158 [label="TCURINST <= 4.855\nmse = 0.452\nsamples = 12\nvalue = 1.324"] ;
157 -> 158 ;
159 [label="mse = 0.09\nsamples = 7\nvalue = 0.989"] ;
158 -> 159 ;
160 [label="mse = 0.582\nsamples = 5\nvalue = 1.793"] ;
158 -> 160 ;
161 [label="TCURONON <= 0.66\nmse = 0.788\nsamples = 87\nvalue = 2.078"] ;
157 -> 161 ;
162 [label="TCAPOUT <= 0.686\nmse = 0.939\nsamples = 47\nvalue = 2.291"] ;
161 -> 162 ;
163 [label="TCAPOUT <= 0.632\nmse = 0.883\nsamples = 42\nvalue = 2.425"] ;
162 -> 163 ;
164 [label="TCURONON <= 0.523\nmse = 0.712\nsamples = 34\nvalue = 2.262"] ;
163 -> 164 ;
165 [label="TFEDREV <= 1.233\nmse = 0.423\nsamples = 12\nvalue = 1.794"] ;
164 -> 165 ;
166 [label="mse = 0.426\nsamples = 5\nvalue = 2.271"] ;
165 -> 166 ;
167 [label="mse = 0.142\nsamples = 7\nvalue = 1.453"] ;
165 -> 167 ;
168 [label="TSTREV <= 4.566\nmse = 0.685\nsamples = 22\nvalue = 2.517"] ;
164 -> 168 ;
169 [label="mse = 0.519\nsamples = 8\nvalue = 2.122"] ;
168 -> 169 ;
170 [label="TLOCREV <= 2.499\nmse = 0.639\nsamples = 14\nvalue = 2.743"] ;
168 -> 170 ;
171 [label="mse = 0.551\nsamples = 8\nvalue = 2.417"] ;
170 -> 171 ;
172 [label="mse = 0.426\nsamples = 6\nvalue = 3.178"] ;
170 -> 172 ;
173 [label="mse = 1.019\nsamples = 8\nvalue = 3.115"] ;
163 -> 173 ;
174 [label="mse = 0.006\nsamples = 5\nvalue = 1.17"] ;
162 -> 174 ;
175 [label="TCAPOUT <= 0.479\nmse = 0.494\nsamples = 40\nvalue = 1.828"] ;
161 -> 175 ;
176 [label="TSTREV <= 4.823\nmse = 0.48\nsamples = 14\nvalue = 2.287"] ;
175 -> 176 ;
177 [label="mse = 0.404\nsamples = 9\nvalue = 1.994"] ;
176 -> 177 ;
178 [label="mse = 0.185\nsamples = 5\nvalue = 2.814"] ;
176 -> 178 ;
179 [label="TCURONON <= 0.956\nmse = 0.326\nsamples = 26\nvalue = 1.58"] ;
175 -> 179 ;
180 [label="TCURINST <= 5.412\nmse = 0.175\nsamples = 19\nvalue = 1.424"] ;
179 -> 180 ;
181 [label="TCAPOUT <= 0.618\nmse = 0.121\nsamples = 12\nvalue = 1.264"] ;
180 -> 181 ;
182 [label="mse = 0.047\nsamples = 6\nvalue = 1.518"] ;
181 -> 182 ;
183 [label="mse = 0.065\nsamples = 6\nvalue = 1.01"] ;
181 -> 183 ;
184 [label="mse = 0.149\nsamples = 7\nvalue = 1.699"] ;
180 -> 184 ;
185 [label="mse = 0.492\nsamples = 7\nvalue = 2.004"] ;
179 -> 185 ;
186 [label="TCURINST <= 5.501\nmse = 1.081\nsamples = 172\nvalue = 2.521"] ;
144 -> 186 ;
187 [label="TLOCREV <= 6.083\nmse = 1.087\nsamples = 134\nvalue = 2.669"] ;
186 -> 187 ;
188 [label="TCURSSVC <= 2.96\nmse = 0.982\nsamples = 96\nvalue = 2.468"] ;
187 -> 188 ;
189 [label="TCURSSVC <= 2.909\nmse = 0.964\nsamples = 17\nvalue = 3.159"] ;
188 -> 189 ;
190 [label="TLOCREV <= 5.211\nmse = 0.495\nsamples = 12\nvalue = 2.705"] ;
189 -> 190 ;
191 [label="mse = 0.152\nsamples = 7\nvalue = 3.167"] ;
190 -> 191 ;
192 [label="mse = 0.257\nsamples = 5\nvalue = 2.059"] ;
190 -> 192 ;
193 [label="mse = 0.413\nsamples = 5\nvalue = 4.247"] ;
189 -> 193 ;
194 [label="TSTREV <= 3.884\nmse = 0.86\nsamples = 79\nvalue = 2.319"] ;
188 -> 194 ;
195 [label="TLOCREV <= 4.988\nmse = 0.535\nsamples = 25\nvalue = 1.898"] ;
194 -> 195 ;
196 [label="TSTREV <= 3.629\nmse = 0.609\nsamples = 14\nvalue = 2.093"] ;
195 -> 196 ;
197 [label="mse = 0.721\nsamples = 5\nvalue = 2.823"] ;
196 -> 197 ;
198 [label="mse = 0.086\nsamples = 9\nvalue = 1.688"] ;
196 -> 198 ;
199 [label="TCAPOUT <= 1.111\nmse = 0.331\nsamples = 11\nvalue = 1.649"] ;
195 -> 199 ;
200 [label="mse = 0.114\nsamples = 6\nvalue = 1.372"] ;
199 -> 200 ;
201 [label="mse = 0.39\nsamples = 5\nvalue = 1.98"] ;
199 -> 201 ;
202 [label="TSTREV <= 5.597\nmse = 0.891\nsamples = 54\nvalue = 2.514"] ;
194 -> 202 ;
203 [label="TCURONON <= 0.606\nmse = 0.927\nsamples = 39\nvalue = 2.724"] ;
202 -> 203 ;
204 [label="TCURINST <= 4.975\nmse = 1.054\nsamples = 27\nvalue = 2.957"] ;
203 -> 204 ;
205 [label="TCAPOUT <= 1.107\nmse = 0.602\nsamples = 17\nvalue = 3.269"] ;
204 -> 205 ;
206 [label="mse = 0.281\nsamples = 7\nvalue = 3.754"] ;
205 -> 206 ;
207 [label="TFEDREV <= 0.986\nmse = 0.546\nsamples = 10\nvalue = 2.929"] ;
205 -> 207 ;
208 [label="mse = 0.489\nsamples = 5\nvalue = 2.701"] ;
207 -> 208 ;
209 [label="mse = 0.499\nsamples = 5\nvalue = 3.157"] ;
207 -> 209 ;
210 [label="TLOCREV <= 4.023\nmse = 1.377\nsamples = 10\nvalue = 2.428"] ;
204 -> 210 ;
211 [label="mse = 1.957\nsamples = 5\nvalue = 2.122"] ;
210 -> 211 ;
212 [label="mse = 0.611\nsamples = 5\nvalue = 2.734"] ;
210 -> 212 ;
213 [label="TCURONON <= 0.682\nmse = 0.241\nsamples = 12\nvalue = 2.198"] ;
203 -> 213 ;
214 [label="mse = 0.036\nsamples = 7\nvalue = 1.939"] ;
213 -> 214 ;
215 [label="mse = 0.303\nsamples = 5\nvalue = 2.559"] ;
213 -> 215 ;
216 [label="TSTREV <= 7.286\nmse = 0.386\nsamples = 15\nvalue = 1.969"] ;
202 -> 216 ;
217 [label="mse = 0.153\nsamples = 9\nvalue = 1.706"] ;
216 -> 217 ;
218 [label="mse = 0.476\nsamples = 6\nvalue = 2.364"] ;
216 -> 218 ;
219 [label="TLOCREV <= 8.604\nmse = 0.994\nsamples = 38\nvalue = 3.177"] ;
187 -> 219 ;
220 [label="TSTREV <= 1.872\nmse = 0.98\nsamples = 32\nvalue = 3.006"] ;
219 -> 220 ;
221 [label="TSTREV <= 1.722\nmse = 0.927\nsamples = 13\nvalue = 2.59"] ;
220 -> 221 ;
222 [label="mse = 0.575\nsamples = 7\nvalue = 3.2"] ;
221 -> 222 ;
223 [label="mse = 0.397\nsamples = 6\nvalue = 1.878"] ;
221 -> 223 ;
224 [label="TSTREV <= 2.482\nmse = 0.817\nsamples = 19\nvalue = 3.29"] ;
220 -> 224 ;
225 [label="mse = 0.271\nsamples = 9\nvalue = 3.887"] ;
224 -> 225 ;
226 [label="TCURINST <= 5.253\nmse = 0.7\nsamples = 10\nvalue = 2.753"] ;
224 -> 226 ;
227 [label="mse = 0.122\nsamples = 5\nvalue = 1.985"] ;
226 -> 227 ;
228 [label="mse = 0.098\nsamples = 5\nvalue = 3.521"] ;
226 -> 228 ;
229 [label="mse = 0.074\nsamples = 6\nvalue = 4.09"] ;
219 -> 229 ;
230 [label="TCURONON <= 0.633\nmse = 0.71\nsamples = 38\nvalue = 2.0"] ;
186 -> 230 ;
231 [label="TCURINST <= 6.173\nmse = 0.549\nsamples = 21\nvalue = 2.346"] ;
230 -> 231 ;
232 [label="mse = 0.337\nsamples = 9\nvalue = 2.825"] ;
231 -> 232 ;
233 [label="TCURSSVC <= 3.602\nmse = 0.406\nsamples = 12\nvalue = 1.986"] ;
231 -> 233 ;
234 [label="mse = 0.116\nsamples = 6\nvalue = 1.522"] ;
233 -> 234 ;
235 [label="mse = 0.263\nsamples = 6\nvalue = 2.451"] ;
233 -> 235 ;
236 [label="TCURSSVC <= 4.034\nmse = 0.579\nsamples = 17\nvalue = 1.573"] ;
230 -> 236 ;
237 [label="TSTREV <= 2.718\nmse = 0.563\nsamples = 11\nvalue = 1.858"] ;
236 -> 237 ;
238 [label="mse = 0.138\nsamples = 6\nvalue = 1.363"] ;
237 -> 238 ;
239 [label="mse = 0.425\nsamples = 5\nvalue = 2.453"] ;
237 -> 239 ;
240 [label="mse = 0.184\nsamples = 6\nvalue = 1.048"] ;
236 -> 240 ;
}
